<?xml version="1.0"?>
<opencv_storage>
<cascade>
  <stageType>BOOST</stageType>
  <featureType>HAAR</featureType>
  <height>20</height>
  <width>20</width>
  <stageParams>
    <boostType>GAB</boostType>
    <minHitRate>9.9500000476837158e-01</minHitRate>
    <maxFalseAlarm>5.0000000000000000e-01</maxFalseAlarm>
    <weightTrimRate>9.4999999999999996e-01</weightTrimRate>
    <maxDepth>1</maxDepth>
    <maxWeakCount>100</maxWeakCount></stageParams>
  <featureParams>
    <maxCatCount>0</maxCatCount>
    <featSize>1</featSize>
    <mode>BASIC</mode></featureParams>
  <stageNum>9</stageNum>
  <stages>
    <!-- stage 0 -->
    <_>
      <maxWeakCount>2</maxWeakCount>
      <stageThreshold>-2.8587406873703003e-01</stageThreshold>
      <weakClassifiers>
        <_>
          <internalNodes>
            0 -1 14 7.8548625111579895e-02</internalNodes>
          <leafValues>
            -9.5102685689926147e-01 8.3611625432968140e-01</leafValues></_>
        <_>
          <internalNodes>
            0 -1 23 7.9003982245922089e-02</internalNodes>
          <leafValues>
            -8.7046426534652710e-01 6.6515278816223145e-01</leafValues></_></weakClassifiers></_>
    <!-- stage 1 -->
    <_>
      <maxWeakCount>2</maxWeakCount>
      <stageThreshold>-1.0366200655698776e-01</stageThreshold>
      <weakClassifiers>
        <_>
          <internalNodes>
            0 -1 38 -5.8409809134900570e-03</internalNodes>
          <leafValues>
            7.1805393695831299e-01 -8.7316179275512695e-01</leafValues></_>
        <_>
          <internalNodes>
            0 -1 2 2.0816184580326080e-02</internalNodes>
          <leafValues>
            -6.7128491401672363e-01 7.6949977874755859e-01</leafValues></_></weakClassifiers></_>
    <!-- stage 2 -->
    <_>
      <maxWeakCount>4</maxWeakCount>
      <stageThreshold>-6.2965643405914307e-01</stageThreshold>
      <weakClassifiers>
        <_>
          <internalNodes>
            0 -1 5 3.1510077416896820e-02</internalNodes>
          <leafValues>
            -5.8281356096267700e-01 7.6578342914581299e-01</leafValues></_>
        <_>
          <internalNodes>
            0 -1 8 -2.3784032091498375e-03</internalNodes>
          <leafValues>
            5.6464785337448120e-01 -7.9241937398910522e-01</leafValues></_>
        <_>
          <internalNodes>
            0 -1 39 -1.9751038402318954e-02</internalNodes>
          <leafValues>
            4.4699847698211670e-01 -8.5878390073776245e-01</leafValues></_>
        <_>
          <internalNodes>
            0 -1 24 4.2659710161387920e-03</internalNodes>
          <leafValues>
            -9.6812695264816284e-01 2.9857802391052246e-01</leafValues></_></weakClassifiers></_>
    <!-- stage 3 -->
    <_>
      <maxWeakCount>5</maxWeakCount>
      <stageThreshold>-1.3608801364898682e+00</stageThreshold>
      <weakClassifiers>
        <_>
          <internalNodes>
            0 -1 9 2.7898766100406647e-02</internalNodes>
          <leafValues>
            -7.4067163467407227e-01 6.6919487714767456e-01</leafValues></_>
        <_>
          <internalNodes>
            0 -1 21 5.4408079013228416e-03</internalNodes>
          <leafValues>
            -8.3438521623611450e-01 4.6977576613426208e-01</leafValues></_>
        <_>
          <internalNodes>
            0 -1 27 -9.3683926388621330e-03</internalNodes>
          <leafValues>
            3.9399462938308716e-01 -9.1547751426696777e-01</leafValues></_>
        <_>
          <internalNodes>
            0 -1 0 4.9421135336160660e-02</internalNodes>
          <leafValues>
            -5.7168489694595337e-01 5.4780101776123047e-01</leafValues></_>
        <_>
          <internalNodes>
            0 -1 35 -1.1245637200772762e-02</internalNodes>
          <leafValues>
            2.8376188874244690e-01 -9.1229397058486938e-01</leafValues></_></weakClassifiers></_>
    <!-- stage 4 -->
    <_>
      <maxWeakCount>5</maxWeakCount>
      <stageThreshold>-1.2288285493850708e+00</stageThreshold>
      <weakClassifiers>
        <_>
          <internalNodes>
            0 -1 10 -1.8206249922513962e-02</internalNodes>
          <leafValues>
            5.9956234693527222e-01 -8.1990522146224976e-01</leafValues></_>
        <_>
          <internalNodes>
            0 -1 3 1.9736848771572113e-03</internalNodes>
          <leafValues>
            -5.4447162151336670e-01 5.7263147830963135e-01</leafValues></_>
        <_>
          <internalNodes>
            0 -1 18 -7.8599754488095641e-05</internalNodes>
          <leafValues>
            -9.5201534032821655e-01 3.2692274451255798e-01</leafValues></_>
        <_>
          <internalNodes>
            0 -1 19 2.5670276954770088e-03</internalNodes>
          <leafValues>
            -8.4316760301589966e-01 2.5659433007240295e-01</leafValues></_>
        <_>
          <internalNodes>
            0 -1 16 -3.4217140637338161e-04</internalNodes>
          <leafValues>
            3.0647215247154236e-01 -7.6767438650131226e-01</leafValues></_></weakClassifiers></_>
    <!-- stage 5 -->
    <_>
      <maxWeakCount>6</maxWeakCount>
      <stageThreshold>-8.8630402088165283e-01</stageThreshold>
      <weakClassifiers>
        <_>
          <internalNodes>
            0 -1 29 -3.3611879916861653e-04</internalNodes>
          <leafValues>
            6.0311281681060791e-01 -7.4279379844665527e-01</leafValues></_>
        <_>
          <internalNodes>
            0 -1 20 6.4341738820075989e-02</internalNodes>
          <leafValues>
            -8.2763725519180298e-01 4.0264487266540527e-01</leafValues></_>
        <_>
          <internalNodes>
            0 -1 11 3.0912229791283607e-02</internalNodes>
          <leafValues>
            -3.9585822820663452e-01 7.3076987266540527e-01</leafValues></_>
        <_>
          <internalNodes>
            0 -1 28 1.0941078886389732e-02</internalNodes>
          <leafValues>
            -8.4450465440750122e-01 3.1952139735221863e-01</leafValues></_>
        <_>
          <internalNodes>
            0 -1 36 1.1791946366429329e-02</internalNodes>
          <leafValues>
            -8.1829124689102173e-01 2.7920135855674744e-01</leafValues></_>
        <_>
          <internalNodes>
            0 -1 7 -1.3902443461120129e-03</internalNodes>
          <leafValues>
            3.6692965030670166e-01 -7.1162170171737671e-01</leafValues></_></weakClassifiers></_>
    <!-- stage 6 -->
    <_>
      <maxWeakCount>7</maxWeakCount>
      <stageThreshold>-9.3477702140808105e-01</stageThreshold>
      <weakClassifiers>
        <_>
          <internalNodes>
            0 -1 26 9.8843732848763466e-04</internalNodes>
          <leafValues>
            5.6001055240631104e-01 -8.7870240211486816e-01</leafValues></_>
        <_>
          <internalNodes>
            0 -1 6 9.3137726187705994e-02</internalNodes>
          <leafValues>
            -6.6197556257247925e-01 4.6840760111808777e-01</leafValues></_>
        <_>
          <internalNodes>
            0 -1 15 -1.8554516136646271e-02</internalNodes>
          <leafValues>
            3.0113211274147034e-01 -7.6143199205398560e-01</leafValues></_>
        <_>
          <internalNodes>
            0 -1 31 -3.1935242004692554e-03</internalNodes>
          <leafValues>
            2.1209773421287537e-01 -9.2435759305953979e-01</leafValues></_>
        <_>
          <internalNodes>
            0 -1 25 3.2606136519461870e-03</internalNodes>
          <leafValues>
            3.1758922338485718e-01 -7.0891016721725464e-01</leafValues></_>
        <_>
          <internalNodes>
            0 -1 17 6.8100050091743469e-02</internalNodes>
          <leafValues>
            -8.2367944717407227e-01 2.2421887516975403e-01</leafValues></_>
        <_>
          <internalNodes>
            0 -1 1 4.3132188729941845e-03</internalNodes>
          <leafValues>
            -4.0174928307533264e-01 5.7736241817474365e-01</leafValues></_></weakClassifiers></_>
    <!-- stage 7 -->
    <_>
      <maxWeakCount>4</maxWeakCount>
      <stageThreshold>-7.4313384294509888e-01</stageThreshold>
      <weakClassifiers>
        <_>
          <internalNodes>
            0 -1 12 1.8989660311490297e-03</internalNodes>
          <leafValues>
            -4.6558704972267151e-01 6.3552832603454590e-01</leafValues></_>
        <_>
          <internalNodes>
            0 -1 37 -1.5112927649170160e-03</internalNodes>
          <leafValues>
            -9.1986209154129028e-01 3.0475324392318726e-01</leafValues></_>
        <_>
          <internalNodes>
            0 -1 4 7.2646141052246094e-03</internalNodes>
          <leafValues>
            -7.5846737623214722e-01 3.0241981148719788e-01</leafValues></_>
        <_>
          <internalNodes>
            0 -1 33 1.8978201551362872e-03</internalNodes>
          <leafValues>
            1.7616730928421021e-01 -9.4555521011352539e-01</leafValues></_></weakClassifiers></_>
    <!-- stage 8 -->
    <_>
      <maxWeakCount>7</maxWeakCount>
      <stageThreshold>-1.0572416782379150e+00</stageThreshold>
      <weakClassifiers>
        <_>
          <internalNodes>
            0 -1 13 1.4812698354944587e-03</internalNodes>
          <leafValues>
            -9.2347824573516846e-01 5.1745223999023438e-01</leafValues></_>
        <_>
          <internalNodes>
            0 -1 8 -2.4963272735476494e-03</internalNodes>
          <leafValues>
            3.2882016897201538e-01 -7.7744346857070923e-01</leafValues></_>
        <_>
          <internalNodes>
            0 -1 22 5.2591143175959587e-03</internalNodes>
          <leafValues>
            2.7307960391044617e-01 -8.4543037414550781e-01</leafValues></_>
        <_>
          <internalNodes>
            0 -1 40 1.8110767006874084e-02</internalNodes>
          <leafValues>
            -7.6285660266876221e-01 2.4977792799472809e-01</leafValues></_>
        <_>
          <internalNodes>
            0 -1 34 -9.0933367609977722e-03</internalNodes>
          <leafValues>
            -8.1132900714874268e-01 2.3951545357704163e-01</leafValues></_>
        <_>
          <internalNodes>
            0 -1 32 5.7034485507756472e-04</internalNodes>
          <leafValues>
            -6.2565934658050537e-01 3.0195298790931702e-01</leafValues></_>
        <_>
          <internalNodes>
            0 -1 30 -3.1211231835186481e-03</internalNodes>
          <leafValues>
            1.8454593420028687e-01 -8.8540130853652954e-01</leafValues></_></weakClassifiers></_></stages>
  <features>
    <_>
      <rects>
        <_>
          0 10 6 7 -1.</_>
        <_>
          3 10 3 7 2.</_></rects>
      <tilted>0</tilted></_>
    <_>
      <rects>
        <_>
          1 9 2 2 -1.</_>
        <_>
          2 9 1 2 2.</_></rects>
      <tilted>0</tilted></_>
    <_>
      <rects>
        <_>
          1 10 6 4 -1.</_>
        <_>
          3 10 2 4 3.</_></rects>
      <tilted>0</tilted></_>
    <_>
      <rects>
        <_>
          2 9 3 1 -1.</_>
        <_>
          3 9 1 1 3.</_></rects>
      <tilted>0</tilted></_>
    <_>
      <rects>
        <_>
          3 7 2 9 -1.</_>
        <_>
          3 10 2 3 3.</_></rects>
      <tilted>0</tilted></_>
    <_>
      <rects>
        <_>
          4 7 4 12 -1.</_>
        <_>
          4 11 4 4 3.</_></rects>
      <tilted>0</tilted></_>
    <_>
      <rects>
        <_>
          4 7 10 12 -1.</_>
        <_>
          4 11 10 4 3.</_></rects>
      <tilted>0</tilted></_>
    <_>
      <rects>
        <_>
          4 9 2 2 -1.</_>
        <_>
          5 9 1 2 2.</_></rects>
      <tilted>0</tilted></_>
    <_>
      <rects>
        <_>
          4 9 2 5 -1.</_>
        <_>
          5 9 1 5 2.</_></rects>
      <tilted>0</tilted></_>
    <_>
      <rects>
        <_>
          4 9 10 9 -1.</_>
        <_>
          4 12 10 3 3.</_></rects>
      <tilted>0</tilted></_>
    <_>
      <rects>
        <_>
          4 13 14 3 -1.</_>
        <_>
          11 13 7 3 2.</_></rects>
      <tilted>0</tilted></_>
    <_>
      <rects>
        <_>
          5 0 9 4 -1.</_>
        <_>
          5 2 9 2 2.</_></rects>
      <tilted>0</tilted></_>
    <_>
      <rects>
        <_>
          5 2 3 6 -1.</_>
        <_>
          5 4 3 2 3.</_></rects>
      <tilted>0</tilted></_>
    <_>
      <rects>
        <_>
          5 5 8 10 -1.</_>
        <_>
          5 10 8 5 2.</_></rects>
      <tilted>0</tilted></_>
    <_>
      <rects>
        <_>
          5 6 12 9 -1.</_>
        <_>
          9 6 4 9 3.</_></rects>
      <tilted>0</tilted></_>
    <_>
      <rects>
        <_>
          5 8 12 8 -1.</_>
        <_>
          5 8 6 4 2.</_>
        <_>
          11 12 6 4 2.</_></rects>
      <tilted>0</tilted></_>
    <_>
      <rects>
        <_>
          5 13 2 1 -1.</_>
        <_>
          6 13 1 1 2.</_></rects>
      <tilted>0</tilted></_>
    <_>
      <rects>
        <_>
          6 4 12 8 -1.</_>
        <_>
          10 4 4 8 3.</_></rects>
      <tilted>0</tilted></_>
    <_>
      <rects>
        <_>
          6 12 8 1 -1.</_>
        <_>
          10 12 4 1 2.</_></rects>
      <tilted>0</tilted></_>
    <_>
      <rects>
        <_>
          7 2 1 14 -1.</_>
        <_>
          7 9 1 7 2.</_></rects>
      <tilted>0</tilted></_>
    <_>
      <rects>
        <_>
          7 5 12 9 -1.</_>
        <_>
          11 5 4 9 3.</_></rects>
      <tilted>0</tilted></_>
    <_>
      <rects>
        <_>
          7 6 2 9 -1.</_>
        <_>
          8 6 1 9 2.</_></rects>
      <tilted>0</tilted></_>
    <_>
      <rects>
        <_>
          8 3 4 16 -1.</_>
        <_>
          8 11 4 8 2.</_></rects>
      <tilted>0</tilted></_>
    <_>
      <rects>
        <_>
          8 3 7 15 -1.</_>
        <_>
          8 8 7 5 3.</_></rects>
      <tilted>0</tilted></_>
    <_>
      <rects>
        <_>
          8 5 3 9 -1.</_>
        <_>
          8 8 3 3 3.</_></rects>
      <tilted>0</tilted></_>
    <_>
      <rects>
        <_>
          8 9 6 2 -1.</_>
        <_>
          10 9 2 2 3.</_></rects>
      <tilted>0</tilted></_>
    <_>
      <rects>
        <_>
          8 9 5 4 -1.</_>
        <_>
          8 11 5 2 2.</_></rects>
      <tilted>0</tilted></_>
    <_>
      <rects>
        <_>
          8 9 8 6 -1.</_>
        <_>
          8 12 8 3 2.</_></rects>
      <tilted>0</tilted></_>
    <_>
      <rects>
        <_>
          9 3 6 6 -1.</_>
        <_>
          9 6 6 3 2.</_></rects>
      <tilted>0</tilted></_>
    <_>
      <rects>
        <_>
          9 8 4 2 -1.</_>
        <_>
          11 8 2 2 2.</_></rects>
      <tilted>0</tilted></_>
    <_>
      <rects>
        <_>
          9 8 6 3 -1.</_>
        <_>
          12 8 3 3 2.</_></rects>
      <tilted>0</tilted></_>
    <_>
      <rects>
        <_>
          9 8 6 4 -1.</_>
        <_>
          12 8 3 4 2.</_></rects>
      <tilted>0</tilted></_>
    <_>
      <rects>
        <_>
          9 9 4 2 -1.</_>
        <_>
          9 9 2 1 2.</_>
        <_>
          11 10 2 1 2.</_></rects>
      <tilted>0</tilted></_>
    <_>
      <rects>
        <_>
          9 9 5 4 -1.</_>
        <_>
          9 11 5 2 2.</_></rects>
      <tilted>0</tilted></_>
    <_>
      <rects>
        <_>
          9 10 6 4 -1.</_>
        <_>
          9 12 6 2 2.</_></rects>
      <tilted>0</tilted></_>
    <_>
      <rects>
        <_>
          10 5 8 4 -1.</_>
        <_>
          14 5 4 4 2.</_></rects>
      <tilted>0</tilted></_>
    <_>
      <rects>
        <_>
          10 9 4 9 -1.</_>
        <_>
          10 12 4 3 3.</_></rects>
      <tilted>0</tilted></_>
    <_>
      <rects>
        <_>
          11 9 2 4 -1.</_>
        <_>
          11 11 2 2 2.</_></rects>
      <tilted>0</tilted></_>
    <_>
      <rects>
        <_>
          11 13 6 1 -1.</_>
        <_>
          14 13 3 1 2.</_></rects>
      <tilted>0</tilted></_>
    <_>
      <rects>
        <_>
          13 6 6 6 -1.</_>
        <_>
          16 6 3 6 2.</_></rects>
      <tilted>0</tilted></_>
    <_>
      <rects>
        <_>
          14 1 2 15 -1.</_>
        <_>
          14 6 2 5 3.</_></rects>
      <tilted>0</tilted></_></features></cascade>
</opencv_storage>
