<?xml version="1.0"?>
<opencv_storage>
<cascade>
  <stageType>BOOST</stageType>
  <featureType>HAAR</featureType>
  <height>20</height>
  <width>20</width>
  <stageParams>
    <boostType>GAB</boostType>
    <minHitRate>9.9500000476837158e-01</minHitRate>
    <maxFalseAlarm>5.0000000000000000e-01</maxFalseAlarm>
    <weightTrimRate>9.4999999999999996e-01</weightTrimRate>
    <maxDepth>1</maxDepth>
    <maxWeakCount>100</maxWeakCount></stageParams>
  <featureParams>
    <maxCatCount>0</maxCatCount>
    <featSize>1</featSize>
    <mode>BASIC</mode></featureParams>
  <stageNum>8</stageNum>
  <stages>
    <!-- stage 0 -->
    <_>
      <maxWeakCount>2</maxWeakCount>
      <stageThreshold>-1.2573471665382385e-01</stageThreshold>
      <weakClassifiers>
        <_>
          <internalNodes>
            0 -1 6 1.6401839256286621e-01</internalNodes>
          <leafValues>
            -9.4444441795349121e-01 8.5887098312377930e-01</leafValues></_>
        <_>
          <internalNodes>
            0 -1 1 5.2951209247112274e-02</internalNodes>
          <leafValues>
            -7.3806625604629517e-01 8.1870973110198975e-01</leafValues></_></weakClassifiers></_>
    <!-- stage 1 -->
    <_>
      <maxWeakCount>2</maxWeakCount>
      <stageThreshold>-1.2609937787055969e-01</stageThreshold>
      <weakClassifiers>
        <_>
          <internalNodes>
            0 -1 30 8.0944299697875977e-02</internalNodes>
          <leafValues>
            -7.3106646537780762e-01 8.0729526281356812e-01</leafValues></_>
        <_>
          <internalNodes>
            0 -1 15 -5.8268498629331589e-02</internalNodes>
          <leafValues>
            6.0496705770492554e-01 -8.6489564180374146e-01</leafValues></_></weakClassifiers></_>
    <!-- stage 2 -->
    <_>
      <maxWeakCount>5</maxWeakCount>
      <stageThreshold>-8.0778473615646362e-01</stageThreshold>
      <weakClassifiers>
        <_>
          <internalNodes>
            0 -1 8 4.7058448195457458e-02</internalNodes>
          <leafValues>
            -5.2288490533828735e-01 7.8100073337554932e-01</leafValues></_>
        <_>
          <internalNodes>
            0 -1 12 -1.2834218144416809e-01</internalNodes>
          <leafValues>
            5.4950165748596191e-01 -7.5341695547103882e-01</leafValues></_>
        <_>
          <internalNodes>
            0 -1 2 6.2081459909677505e-02</internalNodes>
          <leafValues>
            -6.1471986770629883e-01 6.6728323698043823e-01</leafValues></_>
        <_>
          <internalNodes>
            0 -1 9 3.9908010512590408e-03</internalNodes>
          <leafValues>
            -7.2468435764312744e-01 4.9998477101325989e-01</leafValues></_>
        <_>
          <internalNodes>
            0 -1 34 -3.1221184879541397e-02</internalNodes>
          <leafValues>
            5.0500267744064331e-01 -6.4603936672210693e-01</leafValues></_></weakClassifiers></_>
    <!-- stage 3 -->
    <_>
      <maxWeakCount>4</maxWeakCount>
      <stageThreshold>-6.4724147319793701e-01</stageThreshold>
      <weakClassifiers>
        <_>
          <internalNodes>
            0 -1 28 -2.6883441023528576e-04</internalNodes>
          <leafValues>
            5.8115780353546143e-01 -9.5857989788055420e-01</leafValues></_>
        <_>
          <internalNodes>
            0 -1 20 1.9288524985313416e-02</internalNodes>
          <leafValues>
            -8.2595098018646240e-01 4.2679432034492493e-01</leafValues></_>
        <_>
          <internalNodes>
            0 -1 13 -1.9883828237652779e-02</internalNodes>
          <leafValues>
            5.4833662509918213e-01 -5.8475202322006226e-01</leafValues></_>
        <_>
          <internalNodes>
            0 -1 4 2.4224998056888580e-01</internalNodes>
          <leafValues>
            -7.2164779901504517e-01 4.6929612755775452e-01</leafValues></_></weakClassifiers></_>
    <!-- stage 4 -->
    <_>
      <maxWeakCount>5</maxWeakCount>
      <stageThreshold>-3.5608145594596863e-01</stageThreshold>
      <weakClassifiers>
        <_>
          <internalNodes>
            0 -1 3 2.0299319177865982e-02</internalNodes>
          <leafValues>
            -7.1365636587142944e-01 6.2211424112319946e-01</leafValues></_>
        <_>
          <internalNodes>
            0 -1 25 3.8521797396242619e-03</internalNodes>
          <leafValues>
            -4.9779945611953735e-01 6.0802841186523438e-01</leafValues></_>
        <_>
          <internalNodes>
            0 -1 33 -2.3727332518319599e-05</internalNodes>
          <leafValues>
            3.2547661662101746e-01 -9.4952636957168579e-01</leafValues></_>
        <_>
          <internalNodes>
            0 -1 19 3.6668952088803053e-03</internalNodes>
          <leafValues>
            2.8191983699798584e-01 -9.4625997543334961e-01</leafValues></_>
        <_>
          <internalNodes>
            0 -1 10 -2.9139089747332036e-04</internalNodes>
          <leafValues>
            2.4797794222831726e-01 -8.5446310043334961e-01</leafValues></_></weakClassifiers></_>
    <!-- stage 5 -->
    <_>
      <maxWeakCount>7</maxWeakCount>
      <stageThreshold>-9.2884862422943115e-01</stageThreshold>
      <weakClassifiers>
        <_>
          <internalNodes>
            0 -1 29 -2.8108450351282954e-04</internalNodes>
          <leafValues>
            6.1294263601303101e-01 -6.5800863504409790e-01</leafValues></_>
        <_>
          <internalNodes>
            0 -1 5 8.2044571638107300e-02</internalNodes>
          <leafValues>
            -4.6646711230278015e-01 5.9000301361083984e-01</leafValues></_>
        <_>
          <internalNodes>
            0 -1 7 -1.0340045392513275e-01</internalNodes>
          <leafValues>
            3.9489898085594177e-01 -7.0468121767044067e-01</leafValues></_>
        <_>
          <internalNodes>
            0 -1 21 5.7128904154524207e-04</internalNodes>
          <leafValues>
            2.7372398972511292e-01 -9.4025611877441406e-01</leafValues></_>
        <_>
          <internalNodes>
            0 -1 17 -5.8618723414838314e-05</internalNodes>
          <leafValues>
            1.7607864737510681e-01 -9.2256355285644531e-01</leafValues></_>
        <_>
          <internalNodes>
            0 -1 18 -1.1578982230275869e-04</internalNodes>
          <leafValues>
            -8.9160615205764771e-01 2.2490352392196655e-01</leafValues></_>
        <_>
          <internalNodes>
            0 -1 31 8.7649282068014145e-04</internalNodes>
          <leafValues>
            2.2560223937034607e-01 -8.2464545965194702e-01</leafValues></_></weakClassifiers></_>
    <!-- stage 6 -->
    <_>
      <maxWeakCount>5</maxWeakCount>
      <stageThreshold>-2.5941100716590881e-01</stageThreshold>
      <weakClassifiers>
        <_>
          <internalNodes>
            0 -1 0 9.0517252683639526e-02</internalNodes>
          <leafValues>
            -5.1612901687622070e-01 6.8918919563293457e-01</leafValues></_>
        <_>
          <internalNodes>
            0 -1 35 -1.9755445420742035e-02</internalNodes>
          <leafValues>
            6.6650164127349854e-01 -4.2343759536743164e-01</leafValues></_>
        <_>
          <internalNodes>
            0 -1 32 -4.3739157263189554e-04</internalNodes>
          <leafValues>
            3.2233166694641113e-01 -8.7206447124481201e-01</leafValues></_>
        <_>
          <internalNodes>
            0 -1 23 -7.6394539792090654e-04</internalNodes>
          <leafValues>
            -9.1968709230422974e-01 2.5925990939140320e-01</leafValues></_>
        <_>
          <internalNodes>
            0 -1 16 1.5570879913866520e-03</internalNodes>
          <leafValues>
            2.0302093029022217e-01 -8.6602860689163208e-01</leafValues></_></weakClassifiers></_>
    <!-- stage 7 -->
    <_>
      <maxWeakCount>6</maxWeakCount>
      <stageThreshold>-8.8449949026107788e-01</stageThreshold>
      <weakClassifiers>
        <_>
          <internalNodes>
            0 -1 26 6.3307472737506032e-04</internalNodes>
          <leafValues>
            -4.2507645487785339e-01 6.7634856700897217e-01</leafValues></_>
        <_>
          <internalNodes>
            0 -1 14 3.2090432941913605e-02</internalNodes>
          <leafValues>
            -3.9906105399131775e-01 6.7099887132644653e-01</leafValues></_>
        <_>
          <internalNodes>
            0 -1 27 2.1390663459897041e-02</internalNodes>
          <leafValues>
            -9.7288274765014648e-01 3.0057585239410400e-01</leafValues></_>
        <_>
          <internalNodes>
            0 -1 22 9.8510785028338432e-04</internalNodes>
          <leafValues>
            2.9545882344245911e-01 -7.5892812013626099e-01</leafValues></_>
        <_>
          <internalNodes>
            0 -1 24 -3.3344826661050320e-03</internalNodes>
          <leafValues>
            1.7777757346630096e-01 -9.5636367797851562e-01</leafValues></_>
        <_>
          <internalNodes>
            0 -1 11 3.0703404918313026e-03</internalNodes>
          <leafValues>
            2.2021275758743286e-01 -8.4573358297348022e-01</leafValues></_></weakClassifiers></_></stages>
  <features>
    <_>
      <rects>
        <_>
          0 4 12 12 -1.</_>
        <_>
          4 4 4 12 3.</_></rects>
      <tilted>0</tilted></_>
    <_>
      <rects>
        <_>
          0 5 8 7 -1.</_>
        <_>
          4 5 4 7 2.</_></rects>
      <tilted>0</tilted></_>
    <_>
      <rects>
        <_>
          0 6 6 8 -1.</_>
        <_>
          3 6 3 8 2.</_></rects>
      <tilted>0</tilted></_>
    <_>
      <rects>
        <_>
          0 10 14 2 -1.</_>
        <_>
          7 10 7 2 2.</_></rects>
      <tilted>0</tilted></_>
    <_>
      <rects>
        <_>
          4 0 9 18 -1.</_>
        <_>
          4 6 9 6 3.</_></rects>
      <tilted>0</tilted></_>
    <_>
      <rects>
        <_>
          4 0 11 6 -1.</_>
        <_>
          4 3 11 3 2.</_></rects>
      <tilted>0</tilted></_>
    <_>
      <rects>
        <_>
          4 1 9 18 -1.</_>
        <_>
          4 7 9 6 3.</_></rects>
      <tilted>0</tilted></_>
    <_>
      <rects>
        <_>
          4 12 14 8 -1.</_>
        <_>
          4 16 14 4 2.</_></rects>
      <tilted>0</tilted></_>
    <_>
      <rects>
        <_>
          5 0 11 6 -1.</_>
        <_>
          5 3 11 3 2.</_></rects>
      <tilted>0</tilted></_>
    <_>
      <rects>
        <_>
          5 7 8 4 -1.</_>
        <_>
          5 7 4 2 2.</_>
        <_>
          9 9 4 2 2.</_></rects>
      <tilted>0</tilted></_>
    <_>
      <rects>
        <_>
          5 10 2 2 -1.</_>
        <_>
          5 11 2 1 2.</_></rects>
      <tilted>0</tilted></_>
    <_>
      <rects>
        <_>
          5 10 6 2 -1.</_>
        <_>
          7 10 2 2 3.</_></rects>
      <tilted>0</tilted></_>
    <_>
      <rects>
        <_>
          5 10 11 10 -1.</_>
        <_>
          5 15 11 5 2.</_></rects>
      <tilted>0</tilted></_>
    <_>
      <rects>
        <_>
          5 16 8 4 -1.</_>
        <_>
          5 18 8 2 2.</_></rects>
      <tilted>0</tilted></_>
    <_>
      <rects>
        <_>
          6 0 8 4 -1.</_>
        <_>
          6 2 8 2 2.</_></rects>
      <tilted>0</tilted></_>
    <_>
      <rects>
        <_>
          6 7 14 5 -1.</_>
        <_>
          13 7 7 5 2.</_></rects>
      <tilted>0</tilted></_>
    <_>
      <rects>
        <_>
          6 11 5 3 -1.</_>
        <_>
          6 12 5 1 3.</_></rects>
      <tilted>0</tilted></_>
    <_>
      <rects>
        <_>
          6 12 1 2 -1.</_>
        <_>
          6 13 1 1 2.</_></rects>
      <tilted>0</tilted></_>
    <_>
      <rects>
        <_>
          7 9 2 2 -1.</_>
        <_>
          8 9 1 2 2.</_></rects>
      <tilted>0</tilted></_>
    <_>
      <rects>
        <_>
          7 12 6 4 -1.</_>
        <_>
          9 12 2 4 3.</_></rects>
      <tilted>0</tilted></_>
    <_>
      <rects>
        <_>
          8 10 12 6 -1.</_>
        <_>
          12 10 4 6 3.</_></rects>
      <tilted>0</tilted></_>
    <_>
      <rects>
        <_>
          8 12 2 3 -1.</_>
        <_>
          8 13 2 1 3.</_></rects>
      <tilted>0</tilted></_>
    <_>
      <rects>
        <_>
          8 13 6 3 -1.</_>
        <_>
          10 13 2 3 3.</_></rects>
      <tilted>0</tilted></_>
    <_>
      <rects>
        <_>
          8 14 2 3 -1.</_>
        <_>
          9 14 1 3 2.</_></rects>
      <tilted>0</tilted></_>
    <_>
      <rects>
        <_>
          9 4 4 13 -1.</_>
        <_>
          11 4 2 13 2.</_></rects>
      <tilted>0</tilted></_>
    <_>
      <rects>
        <_>
          9 14 2 6 -1.</_>
        <_>
          9 16 2 2 3.</_></rects>
      <tilted>0</tilted></_>
    <_>
      <rects>
        <_>
          9 16 3 3 -1.</_>
        <_>
          9 17 3 1 3.</_></rects>
      <tilted>0</tilted></_>
    <_>
      <rects>
        <_>
          10 1 3 14 -1.</_>
        <_>
          10 8 3 7 2.</_></rects>
      <tilted>0</tilted></_>
    <_>
      <rects>
        <_>
          10 4 2 11 -1.</_>
        <_>
          11 4 1 11 2.</_></rects>
      <tilted>0</tilted></_>
    <_>
      <rects>
        <_>
          10 4 3 6 -1.</_>
        <_>
          10 6 3 2 3.</_></rects>
      <tilted>0</tilted></_>
    <_>
      <rects>
        <_>
          10 5 6 15 -1.</_>
        <_>
          10 10 6 5 3.</_></rects>
      <tilted>0</tilted></_>
    <_>
      <rects>
        <_>
          10 11 2 6 -1.</_>
        <_>
          10 11 1 3 2.</_>
        <_>
          11 14 1 3 2.</_></rects>
      <tilted>0</tilted></_>
    <_>
      <rects>
        <_>
          10 12 1 2 -1.</_>
        <_>
          10 13 1 1 2.</_></rects>
      <tilted>0</tilted></_>
    <_>
      <rects>
        <_>
          11 7 2 8 -1.</_>
        <_>
          12 7 1 8 2.</_></rects>
      <tilted>0</tilted></_>
    <_>
      <rects>
        <_>
          14 6 6 8 -1.</_>
        <_>
          17 6 3 8 2.</_></rects>
      <tilted>0</tilted></_>
    <_>
      <rects>
        <_>
          16 6 4 6 -1.</_>
        <_>
          18 6 2 6 2.</_></rects>
      <tilted>0</tilted></_></features></cascade>
</opencv_storage>
